
\data\
ngram 1=41
ngram 2=83

\1-grams:
-1.250071	.	-1.100038
-0.7941394	</s>
-99	<s>	-0.2385355
-1.919078	agentblue	-0.5618864
-1.919078	agentgreen	-0.5618864
-1.919078	agentlgreen	-0.5618864
-1.919078	agentorange	-0.5618864
-2.396199	assasinate	-0.2249769
-2.396199	attack	-0.2249769
-2.095169	blast	-0.4010682
-2.396199	blow	-0.2992823
-2.396199	board	-0.2249769
-2.396199	capture	-0.2249769
-2.396199	catch	-0.2249769
-2.396199	charge	-0.2992823
-1.794139	coconut	-0.1466802
-1.794139	copter.	-0.9424304
-2.396199	destroy	-0.2249769
-2.396199	detonate	-0.2249769
-2.396199	fire	-0.2249769
-1.493109	go	-0.906348
-1.697229	guy.	-0.4372804
-2.396199	jump	-0.2531355
-1.282256	mango	-0.6585636
-1.919078	move	-0.02174144
-1.441957	neem	-0.6238015
-2.396199	of	-0.2249769
-1.551101	run	-0.3897182
-2.396199	shoot	-0.2249769
-2.396199	surround	-0.2249769
-2.396199	take	-0.2992823
-0.7941394	the	-0.779804
-0.981226	to	-1.355311
-1.618048	tower	-0.5580431
-1.919078	tower.	0.006417133
-2.095169	train	-0.4519898
-2.095169	train.	-0.4010682
-1.250071	tree	-1.100038
-1.317018	tree.	-1.03789
-2.396199	up	-0.2249769
-1.551101	walkfront	-0.3897182

\2-grams:
-0.02996322	. </s>
-1.954242	<s> agentblue
-1.954242	<s> agentgreen
-1.954242	<s> agentlgreen
-1.954242	<s> agentorange
-1.60206	<s> assasinate
-1.60206	<s> attack
-1.30103	<s> blast
-1.60206	<s> blow
-1.60206	<s> board
-1.60206	<s> capture
-1.60206	<s> catch
-1.60206	<s> destroy
-1.60206	<s> detonate
-1.60206	<s> fire
-1.043751	<s> go
-1.60206	<s> jump
-1.954242	<s> move
-1.954242	<s> run
-1.60206	<s> shoot
-1.60206	<s> surround
-1.60206	<s> take
-1.954242	<s> walkfront
-0.60206	agentblue go
-0.60206	agentblue run
-0.60206	agentblue walkfront
-0.60206	agentgreen go
-0.60206	agentgreen run
-0.60206	agentgreen walkfront
-0.60206	agentlgreen go
-0.60206	agentlgreen run
-0.60206	agentlgreen walkfront
-0.60206	agentorange go
-0.60206	agentorange run
-0.60206	agentorange walkfront
-0.30103	assasinate the
-0.30103	attack the
-0.1760913	blast the
-0.30103	blow up
-0.30103	board the
-0.30103	capture the
-0.30103	catch the
-0.30103	charge of
-0.9542425	coconut tree
-0.60206	coconut tree.
-0.04375151	copter. </s>
-0.30103	destroy the
-0.30103	detonate the
-0.30103	fire the
-0.05115252	go to
-0.1590579	guy. </s>
-0.30103	jump to
-0.4661259	mango tree
-0.3357921	mango tree.
-0.8293038	move to
-0.395934	neem tree
-0.4143304	neem tree.
-0.30103	of the
-0.1972806	run to
-0.30103	shoot the
-0.30103	surround the
-0.30103	take charge
-1.954242	the coconut
-1.043751	the copter.
-0.5228788	the mango
-0.69897	the neem
-0.8239087	the tower
-1.954242	the tower.
-1.30103	the train
-1.30103	the train.
-0.01639042	to the
-0.7781513	tower .
-0.2382392	tower guy.
-0.8293038	tower. </s>
-0.1760913	train .
-0.1760913	train. </s>
-0.1346986	tree .
-1.176091	tree coconut
-1.176091	tree mango
-1.176091	tree neem
-0.03476211	tree. </s>
-0.30103	up the
-0.1972806	walkfront to

\end\
